digraph Tree {
node [shape=box] ;
0 [label="X[2] <= 2.5\nentropy = 1.344\nsamples = 437\nvalue = [39, 193, 205]"] ;
1 [label="X[1] <= 1.5\nentropy = 1.182\nsamples = 174\nvalue = [17, 119, 38]"] ;
0 -> 1 [labeldistance=2.5, labelangle=45, headlabel="True"] ;
2 [label="X[3] <= 1.5\nentropy = 1.441\nsamples = 39\nvalue = [7, 11, 21]"] ;
1 -> 2 ;
3 [label="X[0] <= 2.5\nentropy = 0.863\nsamples = 7\nvalue = [2, 5, 0]"] ;
2 -> 3 ;
4 [label="entropy = 0.0\nsamples = 2\nvalue = [2, 0, 0]"] ;
3 -> 4 ;
5 [label="entropy = 0.0\nsamples = 5\nvalue = [0, 5, 0]"] ;
3 -> 5 ;
6 [label="X[0] <= 3.5\nentropy = 1.27\nsamples = 32\nvalue = [5, 6, 21]"] ;
2 -> 6 ;
7 [label="X[3] <= 3.5\nentropy = 0.544\nsamples = 16\nvalue = [2, 0, 14]"] ;
6 -> 7 ;
8 [label="X[2] <= 1.5\nentropy = 0.811\nsamples = 8\nvalue = [2, 0, 6]"] ;
7 -> 8 ;
9 [label="X[0] <= 1.5\nentropy = 1.0\nsamples = 4\nvalue = [2, 0, 2]"] ;
8 -> 9 ;
10 [label="entropy = 0.0\nsamples = 2\nvalue = [0, 0, 2]"] ;
9 -> 10 ;
11 [label="entropy = 0.0\nsamples = 2\nvalue = [2, 0, 0]"] ;
9 -> 11 ;
12 [label="entropy = 0.0\nsamples = 4\nvalue = [0, 0, 4]"] ;
8 -> 12 ;
13 [label="entropy = 0.0\nsamples = 8\nvalue = [0, 0, 8]"] ;
7 -> 13 ;
14 [label="X[2] <= 1.5\nentropy = 1.505\nsamples = 16\nvalue = [3, 6, 7]"] ;
6 -> 14 ;
15 [label="X[3] <= 4.5\nentropy = 1.299\nsamples = 8\nvalue = [2, 5, 1]"] ;
14 -> 15 ;
16 [label="X[3] <= 3.5\nentropy = 0.65\nsamples = 6\nvalue = [1, 5, 0]"] ;
15 -> 16 ;
17 [label="entropy = 0.0\nsamples = 4\nvalue = [0, 4, 0]"] ;
16 -> 17 ;
18 [label="X[0] <= 4.5\nentropy = 1.0\nsamples = 2\nvalue = [1, 1, 0]"] ;
16 -> 18 ;
19 [label="entropy = 0.0\nsamples = 1\nvalue = [1, 0, 0]"] ;
18 -> 19 ;
20 [label="entropy = 0.0\nsamples = 1\nvalue = [0, 1, 0]"] ;
18 -> 20 ;
21 [label="X[0] <= 4.5\nentropy = 1.0\nsamples = 2\nvalue = [1, 0, 1]"] ;
15 -> 21 ;
22 [label="entropy = 0.0\nsamples = 1\nvalue = [0, 0, 1]"] ;
21 -> 22 ;
23 [label="entropy = 0.0\nsamples = 1\nvalue = [1, 0, 0]"] ;
21 -> 23 ;
24 [label="X[3] <= 2.5\nentropy = 1.061\nsamples = 8\nvalue = [1, 1, 6]"] ;
14 -> 24 ;
25 [label="X[0] <= 4.5\nentropy = 1.0\nsamples = 2\nvalue = [1, 1, 0]"] ;
24 -> 25 ;
26 [label="entropy = 0.0\nsamples = 1\nvalue = [1, 0, 0]"] ;
25 -> 26 ;
27 [label="entropy = 0.0\nsamples = 1\nvalue = [0, 1, 0]"] ;
25 -> 27 ;
28 [label="entropy = 0.0\nsamples = 6\nvalue = [0, 0, 6]"] ;
24 -> 28 ;
29 [label="X[0] <= 1.5\nentropy = 0.912\nsamples = 135\nvalue = [10, 108, 17]"] ;
1 -> 29 ;
30 [label="X[3] <= 2.5\nentropy = 1.516\nsamples = 25\nvalue = [5, 9, 11]"] ;
29 -> 30 ;
31 [label="X[2] <= 1.5\nentropy = 0.722\nsamples = 10\nvalue = [2, 8, 0]"] ;
30 -> 31 ;
32 [label="entropy = 0.0\nsamples = 4\nvalue = [0, 4, 0]"] ;
31 -> 32 ;
33 [label="X[1] <= 2.5\nentropy = 0.918\nsamples = 6\nvalue = [2, 4, 0]"] ;
31 -> 33 ;
34 [label="entropy = 0.0\nsamples = 1\nvalue = [1, 0, 0]"] ;
33 -> 34 ;
35 [label="X[3] <= 1.5\nentropy = 0.722\nsamples = 5\nvalue = [1, 4, 0]"] ;
33 -> 35 ;
36 [label="entropy = 0.0\nsamples = 3\nvalue = [0, 3, 0]"] ;
35 -> 36 ;
37 [label="X[1] <= 4.5\nentropy = 1.0\nsamples = 2\nvalue = [1, 1, 0]"] ;
35 -> 37 ;
38 [label="entropy = 0.0\nsamples = 1\nvalue = [1, 0, 0]"] ;
37 -> 38 ;
39 [label="entropy = 0.0\nsamples = 1\nvalue = [0, 1, 0]"] ;
37 -> 39 ;
40 [label="X[2] <= 1.5\nentropy = 1.053\nsamples = 15\nvalue = [3, 1, 11]"] ;
30 -> 40 ;
41 [label="X[1] <= 4.5\nentropy = 1.449\nsamples = 7\nvalue = [3, 1, 3]"] ;
40 -> 41 ;
42 [label="X[3] <= 4.5\nentropy = 0.971\nsamples = 5\nvalue = [2, 0, 3]"] ;
41 -> 42 ;
43 [label="X[1] <= 2.5\nentropy = 0.918\nsamples = 3\nvalue = [2, 0, 1]"] ;
42 -> 43 ;
44 [label="entropy = 0.0\nsamples = 1\nvalue = [0, 0, 1]"] ;
43 -> 44 ;
45 [label="entropy = 0.0\nsamples = 2\nvalue = [2, 0, 0]"] ;
43 -> 45 ;
46 [label="entropy = 0.0\nsamples = 2\nvalue = [0, 0, 2]"] ;
42 -> 46 ;
47 [label="X[3] <= 4.0\nentropy = 1.0\nsamples = 2\nvalue = [1, 1, 0]"] ;
41 -> 47 ;
48 [label="entropy = 0.0\nsamples = 1\nvalue = [0, 1, 0]"] ;
47 -> 48 ;
49 [label="entropy = 0.0\nsamples = 1\nvalue = [1, 0, 0]"] ;
47 -> 49 ;
50 [label="entropy = 0.0\nsamples = 8\nvalue = [0, 0, 8]"] ;
40 -> 50 ;
51 [label="X[2] <= 1.5\nentropy = 0.568\nsamples = 110\nvalue = [5, 99, 6]"] ;
29 -> 51 ;
52 [label="entropy = 0.0\nsamples = 54\nvalue = [0, 54, 0]"] ;
51 -> 52 ;
53 [label="X[1] <= 3.5\nentropy = 0.91\nsamples = 56\nvalue = [5, 45, 6]"] ;
51 -> 53 ;
54 [label="X[0] <= 3.5\nentropy = 1.287\nsamples = 28\nvalue = [4, 18, 6]"] ;
53 -> 54 ;
55 [label="X[3] <= 2.5\nentropy = 1.429\nsamples = 15\nvalue = [2, 7, 6]"] ;
54 -> 55 ;
56 [label="X[1] <= 2.5\nentropy = 0.65\nsamples = 6\nvalue = [1, 5, 0]"] ;
55 -> 56 ;
57 [label="X[0] <= 2.5\nentropy = 1.0\nsamples = 2\nvalue = [1, 1, 0]"] ;
56 -> 57 ;
58 [label="entropy = 0.0\nsamples = 1\nvalue = [1, 0, 0]"] ;
57 -> 58 ;
59 [label="entropy = 0.0\nsamples = 1\nvalue = [0, 1, 0]"] ;
57 -> 59 ;
60 [label="entropy = 0.0\nsamples = 4\nvalue = [0, 4, 0]"] ;
56 -> 60 ;
61 [label="X[0] <= 2.5\nentropy = 1.224\nsamples = 9\nvalue = [1, 2, 6]"] ;
55 -> 61 ;
62 [label="X[3] <= 3.5\nentropy = 0.722\nsamples = 5\nvalue = [1, 0, 4]"] ;
61 -> 62 ;
63 [label="X[1] <= 2.5\nentropy = 1.0\nsamples = 2\nvalue = [1, 0, 1]"] ;
62 -> 63 ;
64 [label="entropy = 0.0\nsamples = 1\nvalue = [0, 0, 1]"] ;
63 -> 64 ;
65 [label="entropy = 0.0\nsamples = 1\nvalue = [1, 0, 0]"] ;
63 -> 65 ;
66 [label="entropy = 0.0\nsamples = 3\nvalue = [0, 0, 3]"] ;
62 -> 66 ;
67 [label="X[1] <= 2.5\nentropy = 1.0\nsamples = 4\nvalue = [0, 2, 2]"] ;
61 -> 67 ;
68 [label="entropy = 0.0\nsamples = 1\nvalue = [0, 0, 1]"] ;
67 -> 68 ;
69 [label="X[3] <= 4.5\nentropy = 0.918\nsamples = 3\nvalue = [0, 2, 1]"] ;
67 -> 69 ;
70 [label="entropy = 0.0\nsamples = 2\nvalue = [0, 2, 0]"] ;
69 -> 70 ;
71 [label="entropy = 0.0\nsamples = 1\nvalue = [0, 0, 1]"] ;
69 -> 71 ;
72 [label="X[1] <= 2.5\nentropy = 0.619\nsamples = 13\nvalue = [2, 11, 0]"] ;
54 -> 72 ;
73 [label="X[3] <= 3.5\nentropy = 0.971\nsamples = 5\nvalue = [2, 3, 0]"] ;
72 -> 73 ;
74 [label="entropy = 0.0\nsamples = 2\nvalue = [0, 2, 0]"] ;
73 -> 74 ;
75 [label="X[3] <= 4.5\nentropy = 0.918\nsamples = 3\nvalue = [2, 1, 0]"] ;
73 -> 75 ;
76 [label="X[0] <= 4.5\nentropy = 1.0\nsamples = 2\nvalue = [1, 1, 0]"] ;
75 -> 76 ;
77 [label="entropy = 0.0\nsamples = 1\nvalue = [1, 0, 0]"] ;
76 -> 77 ;
78 [label="entropy = 0.0\nsamples = 1\nvalue = [0, 1, 0]"] ;
76 -> 78 ;
79 [label="entropy = 0.0\nsamples = 1\nvalue = [1, 0, 0]"] ;
75 -> 79 ;
80 [label="entropy = 0.0\nsamples = 8\nvalue = [0, 8, 0]"] ;
72 -> 80 ;
81 [label="X[0] <= 2.5\nentropy = 0.222\nsamples = 28\nvalue = [1, 27, 0]"] ;
53 -> 81 ;
82 [label="X[3] <= 3.5\nentropy = 0.65\nsamples = 6\nvalue = [1, 5, 0]"] ;
81 -> 82 ;
83 [label="entropy = 0.0\nsamples = 5\nvalue = [0, 5, 0]"] ;
82 -> 83 ;
84 [label="entropy = 0.0\nsamples = 1\nvalue = [1, 0, 0]"] ;
82 -> 84 ;
85 [label="entropy = 0.0\nsamples = 22\nvalue = [0, 22, 0]"] ;
81 -> 85 ;
86 [label="X[3] <= 3.5\nentropy = 1.23\nsamples = 263\nvalue = [22, 74, 167]"] ;
0 -> 86 [labeldistance=2.5, labelangle=-45, headlabel="False"] ;
87 [label="X[1] <= 2.5\nentropy = 1.341\nsamples = 157\nvalue = [14, 66, 77]"] ;
86 -> 87 ;
88 [label="X[0] <= 2.5\nentropy = 1.023\nsamples = 63\nvalue = [6, 9, 48]"] ;
87 -> 88 ;
89 [label="X[3] <= 1.5\nentropy = 0.235\nsamples = 26\nvalue = [1, 0, 25]"] ;
88 -> 89 ;
90 [label="X[2] <= 4.5\nentropy = 0.592\nsamples = 7\nvalue = [1, 0, 6]"] ;
89 -> 90 ;
91 [label="X[2] <= 3.5\nentropy = 0.918\nsamples = 3\nvalue = [1, 0, 2]"] ;
90 -> 91 ;
92 [label="entropy = 0.0\nsamples = 2\nvalue = [0, 0, 2]"] ;
91 -> 92 ;
93 [label="entropy = 0.0\nsamples = 1\nvalue = [1, 0, 0]"] ;
91 -> 93 ;
94 [label="entropy = 0.0\nsamples = 4\nvalue = [0, 0, 4]"] ;
90 -> 94 ;
95 [label="entropy = 0.0\nsamples = 19\nvalue = [0, 0, 19]"] ;
89 -> 95 ;
96 [label="X[3] <= 1.5\nentropy = 1.313\nsamples = 37\nvalue = [5, 9, 23]"] ;
88 -> 96 ;
97 [label="X[1] <= 1.5\nentropy = 1.384\nsamples = 12\nvalue = [2, 7, 3]"] ;
96 -> 97 ;
98 [label="X[0] <= 4.5\nentropy = 1.557\nsamples = 7\nvalue = [2, 2, 3]"] ;
97 -> 98 ;
99 [label="X[2] <= 3.5\nentropy = 0.811\nsamples = 4\nvalue = [1, 0, 3]"] ;
98 -> 99 ;
100 [label="entropy = 0.0\nsamples = 1\nvalue = [1, 0, 0]"] ;
99 -> 100 ;
101 [label="entropy = 0.0\nsamples = 3\nvalue = [0, 0, 3]"] ;
99 -> 101 ;
102 [label="X[2] <= 4.5\nentropy = 0.918\nsamples = 3\nvalue = [1, 2, 0]"] ;
98 -> 102 ;
103 [label="entropy = 0.0\nsamples = 2\nvalue = [0, 2, 0]"] ;
102 -> 103 ;
104 [label="entropy = 0.0\nsamples = 1\nvalue = [1, 0, 0]"] ;
102 -> 104 ;
105 [label="entropy = 0.0\nsamples = 5\nvalue = [0, 5, 0]"] ;
97 -> 105 ;
106 [label="X[1] <= 1.5\nentropy = 0.916\nsamples = 25\nvalue = [3, 2, 20]"] ;
96 -> 106 ;
107 [label="entropy = 0.0\nsamples = 12\nvalue = [0, 0, 12]"] ;
106 -> 107 ;
108 [label="X[3] <= 2.5\nentropy = 1.335\nsamples = 13\nvalue = [3, 2, 8]"] ;
106 -> 108 ;
109 [label="X[2] <= 3.5\nentropy = 1.449\nsamples = 7\nvalue = [3, 1, 3]"] ;
108 -> 109 ;
110 [label="X[0] <= 3.5\nentropy = 1.0\nsamples = 2\nvalue = [1, 1, 0]"] ;
109 -> 110 ;
111 [label="entropy = 0.0\nsamples = 1\nvalue = [1, 0, 0]"] ;
110 -> 111 ;
112 [label="entropy = 0.0\nsamples = 1\nvalue = [0, 1, 0]"] ;
110 -> 112 ;
113 [label="X[0] <= 3.5\nentropy = 0.971\nsamples = 5\nvalue = [2, 0, 3]"] ;
109 -> 113 ;
114 [label="entropy = 0.0\nsamples = 2\nvalue = [0, 0, 2]"] ;
113 -> 114 ;
115 [label="X[0] <= 4.5\nentropy = 0.918\nsamples = 3\nvalue = [2, 0, 1]"] ;
113 -> 115 ;
116 [label="X[2] <= 4.5\nentropy = 1.0\nsamples = 2\nvalue = [1, 0, 1]"] ;
115 -> 116 ;
117 [label="entropy = 0.0\nsamples = 1\nvalue = [1, 0, 0]"] ;
116 -> 117 ;
118 [label="entropy = 0.0\nsamples = 1\nvalue = [0, 0, 1]"] ;
116 -> 118 ;
119 [label="entropy = 0.0\nsamples = 1\nvalue = [1, 0, 0]"] ;
115 -> 119 ;
120 [label="X[0] <= 4.5\nentropy = 0.65\nsamples = 6\nvalue = [0, 1, 5]"] ;
108 -> 120 ;
121 [label="entropy = 0.0\nsamples = 4\nvalue = [0, 0, 4]"] ;
120 -> 121 ;
122 [label="X[2] <= 3.5\nentropy = 1.0\nsamples = 2\nvalue = [0, 1, 1]"] ;
120 -> 122 ;
123 [label="entropy = 0.0\nsamples = 1\nvalue = [0, 1, 0]"] ;
122 -> 123 ;
124 [label="entropy = 0.0\nsamples = 1\nvalue = [0, 0, 1]"] ;
122 -> 124 ;
125 [label="X[0] <= 2.5\nentropy = 1.264\nsamples = 94\nvalue = [8, 57, 29]"] ;
87 -> 125 ;
126 [label="X[3] <= 2.5\nentropy = 1.282\nsamples = 41\nvalue = [4, 12, 25]"] ;
125 -> 126 ;
127 [label="X[0] <= 1.5\nentropy = 1.456\nsamples = 27\nvalue = [4, 12, 11]"] ;
126 -> 127 ;
128 [label="X[3] <= 1.5\nentropy = 1.198\nsamples = 13\nvalue = [2, 2, 9]"] ;
127 -> 128 ;
129 [label="X[1] <= 4.5\nentropy = 1.557\nsamples = 7\nvalue = [2, 2, 3]"] ;
128 -> 129 ;
130 [label="X[2] <= 3.5\nentropy = 0.811\nsamples = 4\nvalue = [1, 0, 3]"] ;
129 -> 130 ;
131 [label="entropy = 0.0\nsamples = 1\nvalue = [1, 0, 0]"] ;
130 -> 131 ;
132 [label="entropy = 0.0\nsamples = 3\nvalue = [0, 0, 3]"] ;
130 -> 132 ;
133 [label="X[2] <= 4.5\nentropy = 0.918\nsamples = 3\nvalue = [1, 2, 0]"] ;
129 -> 133 ;
134 [label="entropy = 0.0\nsamples = 2\nvalue = [0, 2, 0]"] ;
133 -> 134 ;
135 [label="entropy = 0.0\nsamples = 1\nvalue = [1, 0, 0]"] ;
133 -> 135 ;
136 [label="entropy = 0.0\nsamples = 6\nvalue = [0, 0, 6]"] ;
128 -> 136 ;
137 [label="X[3] <= 1.5\nentropy = 1.149\nsamples = 14\nvalue = [2, 10, 2]"] ;
127 -> 137 ;
138 [label="entropy = 0.0\nsamples = 7\nvalue = [0, 7, 0]"] ;
137 -> 138 ;
139 [label="X[2] <= 4.5\nentropy = 1.557\nsamples = 7\nvalue = [2, 3, 2]"] ;
137 -> 139 ;
140 [label="X[1] <= 4.5\nentropy = 0.811\nsamples = 4\nvalue = [1, 3, 0]"] ;
139 -> 140 ;
141 [label="X[2] <= 3.5\nentropy = 1.0\nsamples = 2\nvalue = [1, 1, 0]"] ;
140 -> 141 ;
142 [label="entropy = 0.0\nsamples = 1\nvalue = [0, 1, 0]"] ;
141 -> 142 ;
143 [label="entropy = 0.0\nsamples = 1\nvalue = [1, 0, 0]"] ;
141 -> 143 ;
144 [label="entropy = 0.0\nsamples = 2\nvalue = [0, 2, 0]"] ;
140 -> 144 ;
145 [label="X[1] <= 4.5\nentropy = 0.918\nsamples = 3\nvalue = [1, 0, 2]"] ;
139 -> 145 ;
146 [label="entropy = 0.0\nsamples = 2\nvalue = [0, 0, 2]"] ;
145 -> 146 ;
147 [label="entropy = 0.0\nsamples = 1\nvalue = [1, 0, 0]"] ;
145 -> 147 ;
148 [label="entropy = 0.0\nsamples = 14\nvalue = [0, 0, 14]"] ;
126 -> 148 ;
149 [label="X[3] <= 2.5\nentropy = 0.763\nsamples = 53\nvalue = [4, 45, 4]"] ;
125 -> 149 ;
150 [label="X[0] <= 3.5\nentropy = 0.201\nsamples = 32\nvalue = [0, 31, 1]"] ;
149 -> 150 ;
151 [label="X[2] <= 4.5\nentropy = 0.503\nsamples = 9\nvalue = [0, 8, 1]"] ;
150 -> 151 ;
152 [label="entropy = 0.0\nsamples = 6\nvalue = [0, 6, 0]"] ;
151 -> 152 ;
153 [label="X[3] <= 1.5\nentropy = 0.918\nsamples = 3\nvalue = [0, 2, 1]"] ;
151 -> 153 ;
154 [label="entropy = 0.0\nsamples = 1\nvalue = [0, 1, 0]"] ;
153 -> 154 ;
155 [label="X[1] <= 4.0\nentropy = 1.0\nsamples = 2\nvalue = [0, 1, 1]"] ;
153 -> 155 ;
156 [label="entropy = 0.0\nsamples = 1\nvalue = [0, 0, 1]"] ;
155 -> 156 ;
157 [label="entropy = 0.0\nsamples = 1\nvalue = [0, 1, 0]"] ;
155 -> 157 ;
158 [label="entropy = 0.0\nsamples = 23\nvalue = [0, 23, 0]"] ;
150 -> 158 ;
159 [label="X[2] <= 4.5\nentropy = 1.247\nsamples = 21\nvalue = [4, 14, 3]"] ;
149 -> 159 ;
160 [label="X[0] <= 3.5\nentropy = 0.619\nsamples = 13\nvalue = [2, 11, 0]"] ;
159 -> 160 ;
161 [label="X[1] <= 4.5\nentropy = 0.971\nsamples = 5\nvalue = [2, 3, 0]"] ;
160 -> 161 ;
162 [label="X[2] <= 3.5\nentropy = 0.918\nsamples = 3\nvalue = [2, 1, 0]"] ;
161 -> 162 ;
163 [label="X[1] <= 3.5\nentropy = 1.0\nsamples = 2\nvalue = [1, 1, 0]"] ;
162 -> 163 ;
164 [label="entropy = 0.0\nsamples = 1\nvalue = [1, 0, 0]"] ;
163 -> 164 ;
165 [label="entropy = 0.0\nsamples = 1\nvalue = [0, 1, 0]"] ;
163 -> 165 ;
166 [label="entropy = 0.0\nsamples = 1\nvalue = [1, 0, 0]"] ;
162 -> 166 ;
167 [label="entropy = 0.0\nsamples = 2\nvalue = [0, 2, 0]"] ;
161 -> 167 ;
168 [label="entropy = 0.0\nsamples = 8\nvalue = [0, 8, 0]"] ;
160 -> 168 ;
169 [label="X[1] <= 3.5\nentropy = 1.561\nsamples = 8\nvalue = [2, 3, 3]"] ;
159 -> 169 ;
170 [label="X[0] <= 4.5\nentropy = 0.918\nsamples = 3\nvalue = [1, 0, 2]"] ;
169 -> 170 ;
171 [label="entropy = 0.0\nsamples = 2\nvalue = [0, 0, 2]"] ;
170 -> 171 ;
172 [label="entropy = 0.0\nsamples = 1\nvalue = [1, 0, 0]"] ;
170 -> 172 ;
173 [label="X[0] <= 3.5\nentropy = 1.371\nsamples = 5\nvalue = [1, 3, 1]"] ;
169 -> 173 ;
174 [label="X[1] <= 4.5\nentropy = 1.0\nsamples = 2\nvalue = [1, 0, 1]"] ;
173 -> 174 ;
175 [label="entropy = 0.0\nsamples = 1\nvalue = [0, 0, 1]"] ;
174 -> 175 ;
176 [label="entropy = 0.0\nsamples = 1\nvalue = [1, 0, 0]"] ;
174 -> 176 ;
177 [label="entropy = 0.0\nsamples = 3\nvalue = [0, 3, 0]"] ;
173 -> 177 ;
178 [label="X[0] <= 3.5\nentropy = 0.763\nsamples = 106\nvalue = [8, 8, 90]"] ;
86 -> 178 ;
179 [label="X[1] <= 4.5\nentropy = 0.112\nsamples = 67\nvalue = [1, 0, 66]"] ;
178 -> 179 ;
180 [label="entropy = 0.0\nsamples = 53\nvalue = [0, 0, 53]"] ;
179 -> 180 ;
181 [label="X[2] <= 3.5\nentropy = 0.371\nsamples = 14\nvalue = [1, 0, 13]"] ;
179 -> 181 ;
182 [label="X[0] <= 2.5\nentropy = 0.918\nsamples = 3\nvalue = [1, 0, 2]"] ;
181 -> 182 ;
183 [label="entropy = 0.0\nsamples = 2\nvalue = [0, 0, 2]"] ;
182 -> 183 ;
184 [label="entropy = 0.0\nsamples = 1\nvalue = [1, 0, 0]"] ;
182 -> 184 ;
185 [label="entropy = 0.0\nsamples = 11\nvalue = [0, 0, 11]"] ;
181 -> 185 ;
186 [label="X[1] <= 3.5\nentropy = 1.345\nsamples = 39\nvalue = [7, 8, 24]"] ;
178 -> 186 ;
187 [label="X[1] <= 2.5\nentropy = 0.454\nsamples = 21\nvalue = [2, 0, 19]"] ;
186 -> 187 ;
188 [label="entropy = 0.0\nsamples = 15\nvalue = [0, 0, 15]"] ;
187 -> 188 ;
189 [label="X[2] <= 3.5\nentropy = 0.918\nsamples = 6\nvalue = [2, 0, 4]"] ;
187 -> 189 ;
190 [label="X[0] <= 4.5\nentropy = 0.918\nsamples = 3\nvalue = [2, 0, 1]"] ;
189 -> 190 ;
191 [label="X[3] <= 4.5\nentropy = 1.0\nsamples = 2\nvalue = [1, 0, 1]"] ;
190 -> 191 ;
192 [label="entropy = 0.0\nsamples = 1\nvalue = [1, 0, 0]"] ;
191 -> 192 ;
193 [label="entropy = 0.0\nsamples = 1\nvalue = [0, 0, 1]"] ;
191 -> 193 ;
194 [label="entropy = 0.0\nsamples = 1\nvalue = [1, 0, 0]"] ;
190 -> 194 ;
195 [label="entropy = 0.0\nsamples = 3\nvalue = [0, 0, 3]"] ;
189 -> 195 ;
196 [label="X[2] <= 3.5\nentropy = 1.547\nsamples = 18\nvalue = [5, 8, 5]"] ;
186 -> 196 ;
197 [label="entropy = 0.0\nsamples = 5\nvalue = [0, 5, 0]"] ;
196 -> 197 ;
198 [label="X[3] <= 4.5\nentropy = 1.549\nsamples = 13\nvalue = [5, 3, 5]"] ;
196 -> 198 ;
199 [label="X[0] <= 4.5\nentropy = 1.459\nsamples = 6\nvalue = [2, 3, 1]"] ;
198 -> 199 ;
200 [label="X[1] <= 4.5\nentropy = 1.5\nsamples = 4\nvalue = [2, 1, 1]"] ;
199 -> 200 ;
201 [label="X[2] <= 4.5\nentropy = 1.0\nsamples = 2\nvalue = [1, 0, 1]"] ;
200 -> 201 ;
202 [label="entropy = 0.0\nsamples = 1\nvalue = [1, 0, 0]"] ;
201 -> 202 ;
203 [label="entropy = 0.0\nsamples = 1\nvalue = [0, 0, 1]"] ;
201 -> 203 ;
204 [label="X[2] <= 4.5\nentropy = 1.0\nsamples = 2\nvalue = [1, 1, 0]"] ;
200 -> 204 ;
205 [label="entropy = 0.0\nsamples = 1\nvalue = [0, 1, 0]"] ;
204 -> 205 ;
206 [label="entropy = 0.0\nsamples = 1\nvalue = [1, 0, 0]"] ;
204 -> 206 ;
207 [label="entropy = 0.0\nsamples = 2\nvalue = [0, 2, 0]"] ;
199 -> 207 ;
208 [label="X[1] <= 4.5\nentropy = 0.985\nsamples = 7\nvalue = [3, 0, 4]"] ;
198 -> 208 ;
209 [label="X[0] <= 4.5\nentropy = 0.811\nsamples = 4\nvalue = [1, 0, 3]"] ;
208 -> 209 ;
210 [label="entropy = 0.0\nsamples = 2\nvalue = [0, 0, 2]"] ;
209 -> 210 ;
211 [label="X[2] <= 4.5\nentropy = 1.0\nsamples = 2\nvalue = [1, 0, 1]"] ;
209 -> 211 ;
212 [label="entropy = 0.0\nsamples = 1\nvalue = [1, 0, 0]"] ;
211 -> 212 ;
213 [label="entropy = 0.0\nsamples = 1\nvalue = [0, 0, 1]"] ;
211 -> 213 ;
214 [label="X[2] <= 4.5\nentropy = 0.918\nsamples = 3\nvalue = [2, 0, 1]"] ;
208 -> 214 ;
215 [label="entropy = 0.0\nsamples = 1\nvalue = [1, 0, 0]"] ;
214 -> 215 ;
216 [label="X[0] <= 4.5\nentropy = 1.0\nsamples = 2\nvalue = [1, 0, 1]"] ;
214 -> 216 ;
217 [label="entropy = 0.0\nsamples = 1\nvalue = [0, 0, 1]"] ;
216 -> 217 ;
218 [label="entropy = 0.0\nsamples = 1\nvalue = [1, 0, 0]"] ;
216 -> 218 ;
}
